{
	"levels": [
		{
			"inputs": [
				0,
				0,
				0,
				0.01645370941842661,
				0.4677085832239942
			],
			"outputs": [
				0,
				1,
				1,
				1,
				1,
				1
			],
			"biases": [
				0.20451825671305834,
				-0.12658086977564786,
				0.04342348773689968,
				-0.09267803641338233,
				-0.1724598589626877,
				-0.07186573582343446
			],
			"weights": [
				[
					-0.0055434434032252695,
					-0.10187025265620381,
					0.08048936864576038,
					-0.22576573045566475,
					0.022299260043904222,
					-0.04757271170292
				],
				[
					0.32039925144779824,
					0.21436440847092517,
					0.013848652615567104,
					-0.06497440256693889,
					0.034048241601338215,
					0.08646060961508681
				],
				[
					0.20659140866364115,
					-0.17865432202047626,
					0.3977968636628563,
					-0.1673140119441255,
					-0.23088668984726707,
					-0.08622278086863097
				],
				[
					-0.29374799008351604,
					-0.35683953231642335,
					-0.05101260400714761,
					0.013748330532450623,
					-0.02123816074896994,
					-0.2600796101635859
				],
				[
					-0.1122175120209439,
					0.010806568239348925,
					0.12120252001272643,
					0.0857954061953193,
					-0.02719858272046246,
					-0.1444927082764081
				]
			]
		},
		{
			"inputs": [
				0,
				1,
				1,
				1,
				1,
				1
			],
			"outputs": [
				1,
				0,
				1,
				0
			],
			"biases": [
				-0.1273547733064904,
				-0.22231913044014945,
				0.013658343068609559,
				-0.19588528648096262
			],
			"weights": [
				[
					-0.04637014964920518,
					0.297756709938965,
					-0.11694879271032627,
					-0.14666309185950033
				],
				[
					0.08567807114705503,
					-0.048277354619516905,
					-0.028323510594659138,
					-0.38629502032074436
				],
				[
					0.07472244210845058,
					-0.15569024067015488,
					0.24312855346499546,
					-0.18418358081092037
				],
				[
					0.2439253115449438,
					0.02623917290701834,
					-0.22512105299544838,
					0.019521034050978617
				],
				[
					0.33615401685547713,
					-0.044471185048712975,
					-0.02751137630403738,
					-0.24049175749483132
				],
				[
					0.26401402216426567,
					-0.13990039380496908,
					0.07965222885430906,
					0.06922912946524297
				]
			]
		}
	]
}